digraph Tree {
node [shape=box] ;
0 [label="X[0] <= 53.5\ngini = 0.773\nsamples = 21398\nvalue = [1643, 2579, 618, 2129, 52, 7822, 5264, 177, 122, 883, 109]"] ;
1 [label="X[0] <= 34.5\ngini = 0.771\nsamples = 6352\nvalue = [419, 834, 184, 691, 18, 2362, 1486, 49, 37, 243, 29]"] ;
0 -> 1 [labeldistance=2.5, labelangle=45, headlabel="True"] ;
2 [label="X[0] <= 27.5\ngini = 0.76\nsamples = 1074\nvalue = [72, 146, 40, 85, 3, 420, 251, 11, 3, 38, 5]"] ;
1 -> 2 ;
3 [label="X[0] <= 23.0\ngini = 0.787\nsamples = 111\nvalue = [9, 13, 6, 9, 1, 35, 32, 1, 1, 3, 1]"] ;
2 -> 3 ;
4 [label="gini = 0.738\nsamples = 55\nvalue = [5, 7, 2, 4, 0, 24, 11, 1, 0, 1, 0]"] ;
3 -> 4 ;
5 [label="gini = 0.789\nsamples = 56\nvalue = [4, 6, 4, 5, 1, 11, 21, 0, 1, 2, 1]"] ;
3 -> 5 ;
6 [label="X[0] <= 30.5\ngini = 0.756\nsamples = 963\nvalue = [63, 133, 34, 76, 2, 385, 219, 10, 2, 35, 4]"] ;
2 -> 6 ;
7 [label="X[0] <= 29.5\ngini = 0.739\nsamples = 419\nvalue = [24, 63, 10, 34, 2, 179, 88, 3, 1, 12, 3]"] ;
6 -> 7 ;
8 [label="gini = 0.756\nsamples = 167\nvalue = [8, 27, 4, 19, 2, 65, 37, 0, 0, 5, 0]"] ;
7 -> 8 ;
9 [label="gini = 0.725\nsamples = 252\nvalue = [16, 36, 6, 15, 0, 114, 51, 3, 1, 7, 3]"] ;
7 -> 9 ;
10 [label="X[0] <= 31.5\ngini = 0.767\nsamples = 544\nvalue = [39, 70, 24, 42, 0, 206, 131, 7, 1, 23, 1]"] ;
6 -> 10 ;
11 [label="gini = 0.804\nsamples = 84\nvalue = [9, 9, 2, 9, 0, 23, 24, 4, 0, 4, 0]"] ;
10 -> 11 ;
12 [label="X[0] <= 33.5\ngini = 0.757\nsamples = 460\nvalue = [30, 61, 22, 33, 0, 183, 107, 3, 1, 19, 1]"] ;
10 -> 12 ;
13 [label="X[0] <= 32.5\ngini = 0.757\nsamples = 147\nvalue = [12, 17, 11, 13, 0, 61, 28, 1, 0, 4, 0]"] ;
12 -> 13 ;
14 [label="gini = 0.738\nsamples = 107\nvalue = [9, 15, 5, 7, 0, 47, 20, 0, 0, 4, 0]"] ;
13 -> 14 ;
15 [label="gini = 0.784\nsamples = 40\nvalue = [3, 2, 6, 6, 0, 14, 8, 1, 0, 0, 0]"] ;
13 -> 15 ;
16 [label="gini = 0.754\nsamples = 313\nvalue = [18, 44, 11, 20, 0, 122, 79, 2, 1, 15, 1]"] ;
12 -> 16 ;
17 [label="X[0] <= 35.5\ngini = 0.773\nsamples = 5278\nvalue = [347, 688, 144, 606, 15, 1942, 1235, 38, 34, 205, 24]"] ;
1 -> 17 ;
18 [label="gini = 0.812\nsamples = 139\nvalue = [15, 22, 3, 16, 1, 39, 33, 1, 3, 6, 0]"] ;
17 -> 18 ;
19 [label="X[0] <= 36.5\ngini = 0.772\nsamples = 5139\nvalue = [332, 666, 141, 590, 14, 1903, 1202, 37, 31, 199, 24]"] ;
17 -> 19 ;
20 [label="gini = 0.692\nsamples = 84\nvalue = [1, 9, 0, 18, 0, 38, 18, 0, 0, 0, 0]"] ;
19 -> 20 ;
21 [label="X[0] <= 46.5\ngini = 0.773\nsamples = 5055\nvalue = [331, 657, 141, 572, 14, 1865, 1184, 37, 31, 199, 24]"] ;
19 -> 21 ;
22 [label="X[0] <= 41.5\ngini = 0.771\nsamples = 2657\nvalue = [184, 324, 61, 323, 6, 993, 608, 20, 17, 103, 18]"] ;
21 -> 22 ;
23 [label="X[0] <= 40.5\ngini = 0.768\nsamples = 1341\nvalue = [93, 163, 30, 158, 4, 495, 329, 6, 9, 47, 7]"] ;
22 -> 23 ;
24 [label="X[0] <= 37.5\ngini = 0.76\nsamples = 1087\nvalue = [71, 129, 22, 126, 1, 418, 264, 6, 7, 38, 5]"] ;
23 -> 24 ;
25 [label="gini = 0.767\nsamples = 215\nvalue = [20, 25, 2, 24, 1, 85, 43, 3, 2, 9, 1]"] ;
24 -> 25 ;
26 [label="X[0] <= 38.5\ngini = 0.757\nsamples = 872\nvalue = [51, 104, 20, 102, 0, 333, 221, 3, 5, 29, 4]"] ;
24 -> 26 ;
27 [label="gini = 0.765\nsamples = 305\nvalue = [20, 43, 5, 34, 0, 114, 73, 2, 1, 12, 1]"] ;
26 -> 27 ;
28 [label="X[0] <= 39.5\ngini = 0.752\nsamples = 567\nvalue = [31, 61, 15, 68, 0, 219, 148, 1, 4, 17, 3]"] ;
26 -> 28 ;
29 [label="gini = 0.754\nsamples = 297\nvalue = [15, 34, 9, 35, 0, 116, 74, 1, 3, 9, 1]"] ;
28 -> 29 ;
30 [label="gini = 0.749\nsamples = 270\nvalue = [16, 27, 6, 33, 0, 103, 74, 0, 1, 8, 2]"] ;
28 -> 30 ;
31 [label="gini = 0.799\nsamples = 254\nvalue = [22, 34, 8, 32, 3, 77, 65, 0, 2, 9, 2]"] ;
23 -> 31 ;
32 [label="X[0] <= 43.5\ngini = 0.774\nsamples = 1316\nvalue = [91, 161, 31, 165, 2, 498, 279, 14, 8, 56, 11]"] ;
22 -> 32 ;
33 [label="X[0] <= 42.5\ngini = 0.772\nsamples = 647\nvalue = [47, 80, 18, 81, 2, 251, 128, 8, 3, 25, 4]"] ;
32 -> 33 ;
34 [label="gini = 0.766\nsamples = 395\nvalue = [27, 51, 9, 50, 0, 156, 78, 4, 2, 15, 3]"] ;
33 -> 34 ;
35 [label="gini = 0.781\nsamples = 252\nvalue = [20, 29, 9, 31, 2, 95, 50, 4, 1, 10, 1]"] ;
33 -> 35 ;
36 [label="X[0] <= 44.5\ngini = 0.775\nsamples = 669\nvalue = [44, 81, 13, 84, 0, 247, 151, 6, 5, 31, 7]"] ;
32 -> 36 ;
37 [label="gini = 0.75\nsamples = 172\nvalue = [10, 18, 3, 17, 0, 67, 46, 1, 1, 7, 2]"] ;
36 -> 37 ;
38 [label="X[0] <= 45.5\ngini = 0.782\nsamples = 497\nvalue = [34, 63, 10, 67, 0, 180, 105, 5, 4, 24, 5]"] ;
36 -> 38 ;
39 [label="gini = 0.792\nsamples = 123\nvalue = [7, 19, 2, 18, 0, 43, 22, 0, 3, 8, 1]"] ;
38 -> 39 ;
40 [label="gini = 0.778\nsamples = 374\nvalue = [27, 44, 8, 49, 0, 137, 83, 5, 1, 16, 4]"] ;
38 -> 40 ;
41 [label="X[0] <= 52.5\ngini = 0.773\nsamples = 2398\nvalue = [147, 333, 80, 249, 8, 872, 576, 17, 14, 96, 6]"] ;
21 -> 41 ;
42 [label="X[0] <= 50.5\ngini = 0.772\nsamples = 2030\nvalue = [130, 282, 68, 202, 8, 749, 478, 13, 13, 82, 5]"] ;
41 -> 42 ;
43 [label="X[0] <= 47.5\ngini = 0.775\nsamples = 1593\nvalue = [106, 225, 54, 158, 8, 572, 388, 10, 11, 59, 2]"] ;
42 -> 43 ;
44 [label="gini = 0.763\nsamples = 341\nvalue = [21, 41, 11, 28, 1, 125, 93, 3, 2, 16, 0]"] ;
43 -> 44 ;
45 [label="X[0] <= 49.5\ngini = 0.778\nsamples = 1252\nvalue = [85, 184, 43, 130, 7, 447, 295, 7, 9, 43, 2]"] ;
43 -> 45 ;
46 [label="X[0] <= 48.5\ngini = 0.775\nsamples = 695\nvalue = [48, 116, 16, 69, 4, 246, 164, 4, 4, 23, 1]"] ;
45 -> 46 ;
47 [label="gini = 0.777\nsamples = 309\nvalue = [23, 51, 7, 25, 3, 109, 74, 2, 4, 10, 1]"] ;
46 -> 47 ;
48 [label="gini = 0.772\nsamples = 386\nvalue = [25, 65, 9, 44, 1, 137, 90, 2, 0, 13, 0]"] ;
46 -> 48 ;
49 [label="gini = 0.779\nsamples = 557\nvalue = [37, 68, 27, 61, 3, 201, 131, 3, 5, 20, 1]"] ;
45 -> 49 ;
50 [label="X[0] <= 51.5\ngini = 0.759\nsamples = 437\nvalue = [24, 57, 14, 44, 0, 177, 90, 3, 2, 23, 3]"] ;
42 -> 50 ;
51 [label="gini = 0.759\nsamples = 340\nvalue = [20, 43, 12, 38, 0, 140, 64, 2, 2, 17, 2]"] ;
50 -> 51 ;
52 [label="gini = 0.752\nsamples = 97\nvalue = [4, 14, 2, 6, 0, 37, 26, 1, 0, 6, 1]"] ;
50 -> 52 ;
53 [label="gini = 0.777\nsamples = 368\nvalue = [17, 51, 12, 47, 0, 123, 98, 4, 1, 14, 1]"] ;
41 -> 53 ;
54 [label="X[0] <= 77.5\ngini = 0.773\nsamples = 15046\nvalue = [1224, 1745, 434, 1438, 34, 5460, 3778, 128, 85, 640, 80]"] ;
0 -> 54 [labeldistance=2.5, labelangle=-45, headlabel="False"] ;
55 [label="X[0] <= 60.5\ngini = 0.774\nsamples = 14496\nvalue = [1183, 1686, 425, 1375, 34, 5267, 3621, 124, 84, 619, 78]"] ;
54 -> 55 ;
56 [label="X[0] <= 58.5\ngini = 0.771\nsamples = 3457\nvalue = [255, 372, 103, 356, 5, 1253, 893, 36, 21, 144, 19]"] ;
55 -> 56 ;
57 [label="X[0] <= 55.5\ngini = 0.771\nsamples = 2342\nvalue = [160, 267, 74, 237, 2, 863, 585, 22, 16, 103, 13]"] ;
56 -> 57 ;
58 [label="X[0] <= 54.5\ngini = 0.756\nsamples = 1075\nvalue = [76, 129, 26, 97, 0, 407, 287, 8, 4, 39, 2]"] ;
57 -> 58 ;
59 [label="gini = 0.747\nsamples = 366\nvalue = [24, 53, 9, 27, 0, 138, 103, 1, 0, 10, 1]"] ;
58 -> 59 ;
60 [label="gini = 0.76\nsamples = 709\nvalue = [52, 76, 17, 70, 0, 269, 184, 7, 4, 29, 1]"] ;
58 -> 60 ;
61 [label="X[0] <= 56.5\ngini = 0.782\nsamples = 1267\nvalue = [84, 138, 48, 140, 2, 456, 298, 14, 12, 64, 11]"] ;
57 -> 61 ;
62 [label="gini = 0.794\nsamples = 481\nvalue = [27, 50, 14, 61, 1, 159, 119, 8, 3, 32, 7]"] ;
61 -> 62 ;
63 [label="X[0] <= 57.5\ngini = 0.774\nsamples = 786\nvalue = [57, 88, 34, 79, 1, 297, 179, 6, 9, 32, 4]"] ;
61 -> 63 ;
64 [label="gini = 0.781\nsamples = 388\nvalue = [34, 42, 19, 40, 1, 144, 84, 2, 2, 19, 1]"] ;
63 -> 64 ;
65 [label="gini = 0.766\nsamples = 398\nvalue = [23, 46, 15, 39, 0, 153, 95, 4, 7, 13, 3]"] ;
63 -> 65 ;
66 [label="X[0] <= 59.5\ngini = 0.772\nsamples = 1115\nvalue = [95, 105, 29, 119, 3, 390, 308, 14, 5, 41, 6]"] ;
56 -> 66 ;
67 [label="gini = 0.781\nsamples = 475\nvalue = [40, 53, 13, 50, 0, 158, 130, 5, 4, 18, 4]"] ;
66 -> 67 ;
68 [label="gini = 0.763\nsamples = 640\nvalue = [55, 52, 16, 69, 3, 232, 178, 9, 1, 23, 2]"] ;
66 -> 68 ;
69 [label="X[0] <= 72.5\ngini = 0.774\nsamples = 11039\nvalue = [928, 1314, 322, 1019, 29, 4014, 2728, 88, 63, 475, 59]"] ;
55 -> 69 ;
70 [label="X[0] <= 68.5\ngini = 0.775\nsamples = 8054\nvalue = [698, 951, 224, 728, 25, 2936, 1962, 61, 53, 370, 46]"] ;
69 -> 70 ;
71 [label="X[0] <= 67.5\ngini = 0.777\nsamples = 4563\nvalue = [360, 548, 149, 420, 13, 1650, 1118, 33, 25, 220, 27]"] ;
70 -> 71 ;
72 [label="X[0] <= 65.5\ngini = 0.774\nsamples = 4034\nvalue = [317, 478, 130, 370, 10, 1487, 968, 29, 22, 200, 23]"] ;
71 -> 72 ;
73 [label="X[0] <= 64.5\ngini = 0.777\nsamples = 2678\nvalue = [215, 334, 85, 234, 5, 978, 635, 22, 13, 142, 15]"] ;
72 -> 73 ;
74 [label="X[0] <= 63.5\ngini = 0.779\nsamples = 2061\nvalue = [162, 253, 71, 189, 3, 739, 502, 20, 9, 101, 12]"] ;
73 -> 74 ;
75 [label="X[0] <= 62.5\ngini = 0.775\nsamples = 1397\nvalue = [106, 166, 44, 125, 2, 516, 334, 16, 7, 73, 8]"] ;
74 -> 75 ;
76 [label="X[0] <= 61.5\ngini = 0.774\nsamples = 1205\nvalue = [87, 144, 35, 114, 2, 445, 290, 15, 6, 61, 6]"] ;
75 -> 76 ;
77 [label="gini = 0.78\nsamples = 672\nvalue = [55, 78, 19, 60, 0, 239, 167, 8, 5, 37, 4]"] ;
76 -> 77 ;
78 [label="gini = 0.765\nsamples = 533\nvalue = [32, 66, 16, 54, 2, 206, 123, 7, 1, 24, 2]"] ;
76 -> 78 ;
79 [label="gini = 0.778\nsamples = 192\nvalue = [19, 22, 9, 11, 0, 71, 44, 1, 1, 12, 2]"] ;
75 -> 79 ;
80 [label="gini = 0.786\nsamples = 664\nvalue = [56, 87, 27, 64, 1, 223, 168, 4, 2, 28, 4]"] ;
74 -> 80 ;
81 [label="gini = 0.769\nsamples = 617\nvalue = [53, 81, 14, 45, 2, 239, 133, 2, 4, 41, 3]"] ;
73 -> 81 ;
82 [label="X[0] <= 66.5\ngini = 0.769\nsamples = 1356\nvalue = [102, 144, 45, 136, 5, 509, 333, 7, 9, 58, 8]"] ;
72 -> 82 ;
83 [label="gini = 0.77\nsamples = 923\nvalue = [65, 98, 29, 102, 3, 343, 226, 4, 5, 43, 5]"] ;
82 -> 83 ;
84 [label="gini = 0.764\nsamples = 433\nvalue = [37, 46, 16, 34, 2, 166, 107, 3, 4, 15, 3]"] ;
82 -> 84 ;
85 [label="gini = 0.789\nsamples = 529\nvalue = [43, 70, 19, 50, 3, 163, 150, 4, 3, 20, 4]"] ;
71 -> 85 ;
86 [label="X[0] <= 71.5\ngini = 0.773\nsamples = 3491\nvalue = [338, 403, 75, 308, 12, 1286, 844, 28, 28, 150, 19]"] ;
70 -> 86 ;
87 [label="X[0] <= 70.5\ngini = 0.776\nsamples = 2354\nvalue = [234, 269, 51, 208, 6, 858, 566, 20, 18, 111, 13]"] ;
86 -> 87 ;
88 [label="X[0] <= 69.5\ngini = 0.776\nsamples = 1693\nvalue = [161, 196, 41, 153, 5, 617, 407, 18, 15, 71, 9]"] ;
87 -> 88 ;
89 [label="gini = 0.775\nsamples = 823\nvalue = [76, 88, 19, 76, 4, 304, 198, 10, 11, 32, 5]"] ;
88 -> 89 ;
90 [label="gini = 0.777\nsamples = 870\nvalue = [85, 108, 22, 77, 1, 313, 209, 8, 4, 39, 4]"] ;
88 -> 90 ;
91 [label="gini = 0.774\nsamples = 661\nvalue = [73, 73, 10, 55, 1, 241, 159, 2, 3, 40, 4]"] ;
87 -> 91 ;
92 [label="gini = 0.767\nsamples = 1137\nvalue = [104, 134, 24, 100, 6, 428, 278, 8, 10, 39, 6]"] ;
86 -> 92 ;
93 [label="X[0] <= 73.5\ngini = 0.771\nsamples = 2985\nvalue = [230, 363, 98, 291, 4, 1078, 766, 27, 10, 105, 13]"] ;
69 -> 93 ;
94 [label="gini = 0.767\nsamples = 1037\nvalue = [74, 135, 34, 93, 2, 365, 288, 9, 0, 36, 1]"] ;
93 -> 94 ;
95 [label="X[0] <= 75.5\ngini = 0.773\nsamples = 1948\nvalue = [156, 228, 64, 198, 2, 713, 478, 18, 10, 69, 12]"] ;
93 -> 95 ;
96 [label="X[0] <= 74.5\ngini = 0.776\nsamples = 1525\nvalue = [128, 167, 54, 164, 2, 551, 373, 14, 9, 54, 9]"] ;
95 -> 96 ;
97 [label="gini = 0.778\nsamples = 713\nvalue = [51, 84, 29, 75, 1, 260, 169, 10, 4, 26, 4]"] ;
96 -> 97 ;
98 [label="gini = 0.775\nsamples = 812\nvalue = [77, 83, 25, 89, 1, 291, 204, 4, 5, 28, 5]"] ;
96 -> 98 ;
99 [label="X[0] <= 76.5\ngini = 0.758\nsamples = 423\nvalue = [28, 61, 10, 34, 0, 162, 105, 4, 1, 15, 3]"] ;
95 -> 99 ;
100 [label="gini = 0.755\nsamples = 256\nvalue = [14, 37, 7, 19, 0, 95, 70, 1, 0, 11, 2]"] ;
99 -> 100 ;
101 [label="gini = 0.758\nsamples = 167\nvalue = [14, 24, 3, 15, 0, 67, 35, 3, 1, 4, 1]"] ;
99 -> 101 ;
102 [label="X[0] <= 78.5\ngini = 0.763\nsamples = 550\nvalue = [41, 59, 9, 63, 0, 193, 157, 4, 1, 21, 2]"] ;
54 -> 102 ;
103 [label="gini = 0.759\nsamples = 321\nvalue = [18, 36, 5, 38, 0, 115, 91, 2, 1, 15, 0]"] ;
102 -> 103 ;
104 [label="gini = 0.768\nsamples = 229\nvalue = [23, 23, 4, 25, 0, 78, 66, 2, 0, 6, 2]"] ;
102 -> 104 ;
}
