digraph Tree {
node [shape=box] ;
0 [label="X[0] <= 51.5\ngini = 0.771\nsamples = 21398\nvalue = [1613, 2530, 614, 2121, 44, 7920, 5251, 180, 128, 887, 110]"] ;
1 [label="X[0] <= 50.5\ngini = 0.771\nsamples = 5787\nvalue = [385, 724, 162, 631, 15, 2176, 1335, 53, 42, 235, 29]"] ;
0 -> 1 [labeldistance=2.5, labelangle=45, headlabel="True"] ;
2 [label="X[0] <= 27.5\ngini = 0.771\nsamples = 5453\nvalue = [362, 684, 150, 596, 15, 2035, 1278, 50, 39, 216, 28]"] ;
1 -> 2 ;
3 [label="X[0] <= 23.0\ngini = 0.824\nsamples = 105\nvalue = [9, 13, 9, 11, 1, 27, 27, 1, 1, 5, 1]"] ;
2 -> 3 ;
4 [label="gini = 0.8\nsamples = 49\nvalue = [4, 7, 4, 5, 0, 17, 9, 1, 0, 2, 0]"] ;
3 -> 4 ;
5 [label="gini = 0.822\nsamples = 56\nvalue = [5, 6, 5, 6, 1, 10, 18, 0, 1, 3, 1]"] ;
3 -> 5 ;
6 [label="X[0] <= 30.5\ngini = 0.77\nsamples = 5348\nvalue = [353, 671, 141, 585, 14, 2008, 1251, 49, 38, 211, 27]"] ;
2 -> 6 ;
7 [label="X[0] <= 29.5\ngini = 0.74\nsamples = 424\nvalue = [26, 55, 11, 39, 3, 185, 84, 3, 1, 13, 4]"] ;
6 -> 7 ;
8 [label="gini = 0.764\nsamples = 182\nvalue = [11, 23, 5, 26, 3, 71, 37, 0, 0, 6, 0]"] ;
7 -> 8 ;
9 [label="gini = 0.714\nsamples = 242\nvalue = [15, 32, 6, 13, 0, 114, 47, 3, 1, 7, 4]"] ;
7 -> 9 ;
10 [label="X[0] <= 31.5\ngini = 0.772\nsamples = 4924\nvalue = [327, 616, 130, 546, 11, 1823, 1167, 46, 37, 198, 23]"] ;
6 -> 10 ;
11 [label="gini = 0.8\nsamples = 72\nvalue = [6, 10, 2, 5, 0, 20, 21, 4, 0, 4, 0]"] ;
10 -> 11 ;
12 [label="X[0] <= 46.5\ngini = 0.771\nsamples = 4852\nvalue = [321, 606, 128, 541, 11, 1803, 1146, 42, 37, 194, 23]"] ;
10 -> 12 ;
13 [label="X[0] <= 40.5\ngini = 0.774\nsamples = 3283\nvalue = [232, 396, 81, 388, 5, 1210, 766, 29, 25, 133, 18]"] ;
12 -> 13 ;
14 [label="X[0] <= 34.5\ngini = 0.763\nsamples = 1754\nvalue = [117, 205, 43, 195, 1, 660, 441, 11, 11, 65, 5]"] ;
13 -> 14 ;
15 [label="X[0] <= 33.5\ngini = 0.759\nsamples = 451\nvalue = [28, 57, 21, 34, 0, 175, 111, 4, 1, 19, 1]"] ;
14 -> 15 ;
16 [label="X[0] <= 32.5\ngini = 0.764\nsamples = 149\nvalue = [9, 19, 10, 12, 0, 59, 32, 2, 0, 6, 0]"] ;
15 -> 16 ;
17 [label="gini = 0.75\nsamples = 102\nvalue = [6, 15, 5, 7, 0, 42, 22, 1, 0, 4, 0]"] ;
16 -> 17 ;
18 [label="gini = 0.788\nsamples = 47\nvalue = [3, 4, 5, 5, 0, 17, 10, 1, 0, 2, 0]"] ;
16 -> 18 ;
19 [label="gini = 0.756\nsamples = 302\nvalue = [19, 38, 11, 22, 0, 116, 79, 2, 1, 13, 1]"] ;
15 -> 19 ;
20 [label="X[0] <= 35.5\ngini = 0.763\nsamples = 1303\nvalue = [89, 148, 22, 161, 1, 485, 330, 7, 10, 46, 4]"] ;
14 -> 20 ;
21 [label="gini = 0.806\nsamples = 125\nvalue = [10, 18, 2, 17, 0, 35, 32, 1, 3, 7, 0]"] ;
20 -> 21 ;
22 [label="X[0] <= 38.5\ngini = 0.757\nsamples = 1178\nvalue = [79, 130, 20, 144, 1, 450, 298, 6, 7, 39, 4]"] ;
20 -> 22 ;
23 [label="X[0] <= 36.5\ngini = 0.754\nsamples = 612\nvalue = [42, 70, 7, 78, 1, 243, 141, 4, 4, 21, 1]"] ;
22 -> 23 ;
24 [label="gini = 0.731\nsamples = 82\nvalue = [4, 9, 1, 15, 0, 33, 20, 0, 0, 0, 0]"] ;
23 -> 24 ;
25 [label="X[0] <= 37.5\ngini = 0.757\nsamples = 530\nvalue = [38, 61, 6, 63, 1, 210, 121, 4, 4, 21, 1]"] ;
23 -> 25 ;
26 [label="gini = 0.762\nsamples = 216\nvalue = [17, 24, 1, 27, 1, 85, 47, 2, 2, 9, 1]"] ;
25 -> 26 ;
27 [label="gini = 0.753\nsamples = 314\nvalue = [21, 37, 5, 36, 0, 125, 74, 2, 2, 12, 0]"] ;
25 -> 27 ;
28 [label="X[0] <= 39.5\ngini = 0.759\nsamples = 566\nvalue = [37, 60, 13, 66, 0, 207, 157, 2, 3, 18, 3]"] ;
22 -> 28 ;
29 [label="gini = 0.754\nsamples = 305\nvalue = [19, 33, 7, 35, 0, 112, 87, 1, 2, 8, 1]"] ;
28 -> 29 ;
30 [label="gini = 0.764\nsamples = 261\nvalue = [18, 27, 6, 31, 0, 95, 70, 1, 1, 10, 2]"] ;
28 -> 30 ;
31 [label="X[0] <= 41.5\ngini = 0.785\nsamples = 1529\nvalue = [115, 191, 38, 193, 4, 550, 325, 18, 14, 68, 13]"] ;
13 -> 31 ;
32 [label="gini = 0.805\nsamples = 262\nvalue = [22, 38, 6, 34, 2, 79, 62, 1, 3, 14, 1]"] ;
31 -> 32 ;
33 [label="X[0] <= 44.5\ngini = 0.78\nsamples = 1267\nvalue = [93, 153, 32, 159, 2, 471, 263, 17, 11, 54, 12]"] ;
31 -> 33 ;
34 [label="X[0] <= 43.5\ngini = 0.774\nsamples = 798\nvalue = [60, 96, 24, 89, 2, 308, 163, 10, 6, 32, 8]"] ;
33 -> 34 ;
35 [label="X[0] <= 42.5\ngini = 0.774\nsamples = 637\nvalue = [49, 75, 22, 72, 2, 248, 125, 9, 4, 26, 5]"] ;
34 -> 35 ;
36 [label="gini = 0.768\nsamples = 397\nvalue = [30, 48, 12, 44, 0, 159, 75, 6, 3, 16, 4]"] ;
35 -> 36 ;
37 [label="gini = 0.783\nsamples = 240\nvalue = [19, 27, 10, 28, 2, 89, 50, 3, 1, 10, 1]"] ;
35 -> 37 ;
38 [label="gini = 0.77\nsamples = 161\nvalue = [11, 21, 2, 17, 0, 60, 38, 1, 2, 6, 3]"] ;
34 -> 38 ;
39 [label="X[0] <= 45.5\ngini = 0.789\nsamples = 469\nvalue = [33, 57, 8, 70, 0, 163, 100, 7, 5, 22, 4]"] ;
33 -> 39 ;
40 [label="gini = 0.783\nsamples = 119\nvalue = [6, 15, 0, 19, 0, 42, 25, 0, 4, 7, 1]"] ;
39 -> 40 ;
41 [label="gini = 0.79\nsamples = 350\nvalue = [27, 42, 8, 51, 0, 121, 75, 7, 1, 15, 3]"] ;
39 -> 41 ;
42 [label="X[0] <= 47.5\ngini = 0.765\nsamples = 1569\nvalue = [89, 210, 47, 153, 6, 593, 380, 13, 12, 61, 5]"] ;
12 -> 42 ;
43 [label="gini = 0.76\nsamples = 332\nvalue = [16, 39, 11, 30, 0, 125, 88, 4, 2, 17, 0]"] ;
42 -> 43 ;
44 [label="X[0] <= 49.5\ngini = 0.766\nsamples = 1237\nvalue = [73, 171, 36, 123, 6, 468, 292, 9, 10, 44, 5]"] ;
42 -> 44 ;
45 [label="X[0] <= 48.5\ngini = 0.759\nsamples = 677\nvalue = [43, 98, 12, 67, 3, 262, 159, 5, 4, 22, 2]"] ;
44 -> 45 ;
46 [label="gini = 0.765\nsamples = 314\nvalue = [21, 46, 6, 26, 2, 120, 73, 4, 4, 11, 1]"] ;
45 -> 46 ;
47 [label="gini = 0.753\nsamples = 363\nvalue = [22, 52, 6, 41, 1, 142, 86, 1, 0, 11, 1]"] ;
45 -> 47 ;
48 [label="gini = 0.775\nsamples = 560\nvalue = [30, 73, 24, 56, 3, 206, 133, 4, 6, 22, 3]"] ;
44 -> 48 ;
49 [label="gini = 0.758\nsamples = 334\nvalue = [23, 40, 12, 35, 0, 141, 57, 3, 3, 19, 1]"] ;
1 -> 49 ;
50 [label="X[0] <= 67.5\ngini = 0.77\nsamples = 15611\nvalue = [1228, 1806, 452, 1490, 29, 5744, 3916, 127, 86, 652, 81]"] ;
0 -> 50 [labeldistance=2.5, labelangle=-45, headlabel="False"] ;
51 [label="X[0] <= 54.5\ngini = 0.77\nsamples = 7947\nvalue = [574, 910, 243, 782, 15, 2961, 1957, 69, 44, 346, 46]"] ;
50 -> 51 ;
52 [label="X[0] <= 53.5\ngini = 0.758\nsamples = 831\nvalue = [49, 114, 21, 78, 1, 306, 226, 5, 1, 26, 4]"] ;
51 -> 52 ;
53 [label="X[0] <= 52.5\ngini = 0.763\nsamples = 460\nvalue = [26, 57, 13, 49, 0, 169, 122, 5, 1, 16, 2]"] ;
52 -> 53 ;
54 [label="gini = 0.745\nsamples = 100\nvalue = [8, 13, 1, 5, 0, 37, 30, 1, 0, 5, 0]"] ;
53 -> 54 ;
55 [label="gini = 0.766\nsamples = 360\nvalue = [18, 44, 12, 44, 0, 132, 92, 4, 1, 11, 2]"] ;
53 -> 55 ;
56 [label="gini = 0.75\nsamples = 371\nvalue = [23, 57, 8, 29, 1, 137, 104, 0, 0, 10, 2]"] ;
52 -> 56 ;
57 [label="X[0] <= 62.5\ngini = 0.771\nsamples = 7116\nvalue = [525, 796, 222, 704, 14, 2655, 1731, 64, 43, 320, 42]"] ;
51 -> 57 ;
58 [label="X[0] <= 55.5\ngini = 0.773\nsamples = 4284\nvalue = [304, 477, 137, 448, 6, 1576, 1056, 48, 29, 179, 24]"] ;
57 -> 58 ;
59 [label="gini = 0.753\nsamples = 719\nvalue = [54, 85, 15, 67, 1, 284, 177, 6, 3, 25, 2]"] ;
58 -> 59 ;
60 [label="X[0] <= 57.5\ngini = 0.776\nsamples = 3565\nvalue = [250, 392, 122, 381, 5, 1292, 879, 42, 26, 154, 22]"] ;
58 -> 60 ;
61 [label="X[0] <= 56.5\ngini = 0.791\nsamples = 857\nvalue = [64, 103, 33, 92, 1, 294, 200, 8, 6, 48, 8]"] ;
60 -> 61 ;
62 [label="gini = 0.789\nsamples = 471\nvalue = [28, 58, 10, 53, 0, 160, 114, 6, 4, 31, 7]"] ;
61 -> 62 ;
63 [label="gini = 0.792\nsamples = 386\nvalue = [36, 45, 23, 39, 1, 134, 86, 2, 2, 17, 1]"] ;
61 -> 63 ;
64 [label="X[0] <= 60.5\ngini = 0.771\nsamples = 2708\nvalue = [186, 289, 89, 289, 4, 998, 679, 34, 20, 106, 14]"] ;
60 -> 64 ;
65 [label="X[0] <= 58.5\ngini = 0.766\nsamples = 1525\nvalue = [106, 145, 48, 172, 2, 564, 397, 19, 11, 51, 10]"] ;
64 -> 65 ;
66 [label="gini = 0.756\nsamples = 408\nvalue = [21, 45, 16, 40, 0, 164, 96, 4, 6, 12, 4]"] ;
65 -> 66 ;
67 [label="X[0] <= 59.5\ngini = 0.769\nsamples = 1117\nvalue = [85, 100, 32, 132, 2, 400, 301, 15, 5, 39, 6]"] ;
65 -> 67 ;
68 [label="gini = 0.78\nsamples = 476\nvalue = [33, 47, 16, 57, 0, 156, 135, 7, 4, 17, 4]"] ;
67 -> 68 ;
69 [label="gini = 0.759\nsamples = 641\nvalue = [52, 53, 16, 75, 2, 244, 166, 8, 1, 22, 2]"] ;
67 -> 69 ;
70 [label="X[0] <= 61.5\ngini = 0.776\nsamples = 1183\nvalue = [80, 144, 41, 117, 2, 434, 282, 15, 9, 55, 4]"] ;
64 -> 70 ;
71 [label="gini = 0.782\nsamples = 658\nvalue = [54, 79, 22, 60, 1, 238, 153, 8, 6, 34, 3]"] ;
70 -> 71 ;
72 [label="gini = 0.768\nsamples = 525\nvalue = [26, 65, 19, 57, 1, 196, 129, 7, 3, 21, 1]"] ;
70 -> 72 ;
73 [label="X[0] <= 63.5\ngini = 0.768\nsamples = 2832\nvalue = [221, 319, 85, 256, 8, 1079, 675, 16, 14, 141, 18]"] ;
57 -> 73 ;
74 [label="gini = 0.764\nsamples = 207\nvalue = [18, 19, 10, 15, 0, 83, 45, 1, 1, 13, 2]"] ;
73 -> 74 ;
75 [label="X[0] <= 64.5\ngini = 0.768\nsamples = 2625\nvalue = [203, 300, 75, 241, 8, 996, 630, 15, 13, 128, 16]"] ;
73 -> 75 ;
76 [label="gini = 0.769\nsamples = 681\nvalue = [52, 79, 24, 65, 0, 250, 174, 3, 2, 28, 4]"] ;
75 -> 76 ;
77 [label="X[0] <= 65.5\ngini = 0.767\nsamples = 1944\nvalue = [151, 221, 51, 176, 8, 746, 456, 12, 11, 100, 12]"] ;
75 -> 77 ;
78 [label="gini = 0.765\nsamples = 623\nvalue = [47, 75, 12, 53, 2, 244, 138, 3, 4, 40, 5]"] ;
77 -> 78 ;
79 [label="X[0] <= 66.5\ngini = 0.767\nsamples = 1321\nvalue = [104, 146, 39, 123, 6, 502, 318, 9, 7, 60, 7]"] ;
77 -> 79 ;
80 [label="gini = 0.769\nsamples = 897\nvalue = [66, 99, 24, 91, 4, 337, 218, 5, 5, 44, 4]"] ;
79 -> 80 ;
81 [label="gini = 0.764\nsamples = 424\nvalue = [38, 47, 15, 32, 2, 165, 100, 4, 2, 16, 3]"] ;
79 -> 81 ;
82 [label="X[0] <= 72.5\ngini = 0.771\nsamples = 7664\nvalue = [654, 896, 209, 708, 14, 2783, 1959, 58, 42, 306, 35]"] ;
50 -> 82 ;
83 [label="X[0] <= 68.5\ngini = 0.772\nsamples = 4125\nvalue = [377, 483, 109, 352, 11, 1512, 1027, 33, 30, 167, 24]"] ;
82 -> 83 ;
84 [label="gini = 0.783\nsamples = 557\nvalue = [42, 72, 19, 54, 2, 182, 153, 6, 3, 20, 4]"] ;
83 -> 84 ;
85 [label="X[0] <= 71.5\ngini = 0.77\nsamples = 3568\nvalue = [335, 411, 90, 298, 9, 1330, 874, 27, 27, 147, 20]"] ;
83 -> 85 ;
86 [label="X[0] <= 69.5\ngini = 0.771\nsamples = 2389\nvalue = [234, 259, 57, 205, 5, 892, 576, 19, 16, 113, 13]"] ;
85 -> 86 ;
87 [label="gini = 0.762\nsamples = 836\nvalue = [72, 85, 20, 80, 3, 325, 201, 9, 8, 27, 6]"] ;
86 -> 87 ;
88 [label="X[0] <= 70.5\ngini = 0.775\nsamples = 1553\nvalue = [162, 174, 37, 125, 2, 567, 375, 10, 8, 86, 7]"] ;
86 -> 88 ;
89 [label="gini = 0.772\nsamples = 885\nvalue = [89, 96, 22, 75, 1, 326, 216, 7, 4, 45, 4]"] ;
88 -> 89 ;
90 [label="gini = 0.778\nsamples = 668\nvalue = [73, 78, 15, 50, 1, 241, 159, 3, 4, 41, 3]"] ;
88 -> 90 ;
91 [label="gini = 0.766\nsamples = 1179\nvalue = [101, 152, 33, 93, 4, 438, 298, 8, 11, 34, 7]"] ;
85 -> 91 ;
92 [label="X[0] <= 73.5\ngini = 0.769\nsamples = 3539\nvalue = [277, 413, 100, 356, 3, 1271, 932, 25, 12, 139, 11]"] ;
82 -> 92 ;
93 [label="gini = 0.769\nsamples = 1024\nvalue = [65, 132, 32, 102, 0, 360, 278, 7, 1, 46, 1]"] ;
92 -> 93 ;
94 [label="X[0] <= 75.5\ngini = 0.769\nsamples = 2515\nvalue = [212, 281, 68, 254, 3, 911, 654, 18, 11, 93, 10]"] ;
92 -> 94 ;
95 [label="X[0] <= 74.5\ngini = 0.774\nsamples = 1536\nvalue = [142, 160, 53, 161, 1, 555, 383, 13, 7, 55, 6]"] ;
94 -> 95 ;
96 [label="gini = 0.782\nsamples = 712\nvalue = [60, 82, 31, 75, 0, 251, 173, 9, 4, 25, 2]"] ;
95 -> 96 ;
97 [label="gini = 0.767\nsamples = 824\nvalue = [82, 78, 22, 86, 1, 304, 210, 4, 3, 30, 4]"] ;
95 -> 97 ;
98 [label="X[0] <= 78.5\ngini = 0.76\nsamples = 979\nvalue = [70, 121, 15, 93, 2, 356, 271, 5, 4, 38, 4]"] ;
94 -> 98 ;
99 [label="X[0] <= 76.5\ngini = 0.752\nsamples = 751\nvalue = [45, 95, 12, 70, 1, 282, 208, 3, 4, 29, 2]"] ;
98 -> 99 ;
100 [label="gini = 0.747\nsamples = 259\nvalue = [13, 33, 7, 19, 0, 97, 76, 1, 2, 9, 2]"] ;
99 -> 100 ;
101 [label="X[0] <= 77.5\ngini = 0.754\nsamples = 492\nvalue = [32, 62, 5, 51, 1, 185, 132, 2, 2, 20, 0]"] ;
99 -> 101 ;
102 [label="gini = 0.761\nsamples = 174\nvalue = [14, 24, 3, 18, 0, 67, 40, 1, 1, 6, 0]"] ;
101 -> 102 ;
103 [label="gini = 0.748\nsamples = 318\nvalue = [18, 38, 2, 33, 1, 118, 92, 1, 1, 14, 0]"] ;
101 -> 103 ;
104 [label="gini = 0.781\nsamples = 228\nvalue = [25, 26, 3, 23, 1, 74, 63, 2, 0, 9, 2]"] ;
98 -> 104 ;
}
